[[array([[ 3.421869  ,  0.10296214, -0.49960366, ..., -1.206081  ,
         0.41980305, 13.19823   ],
       [ 1.4300435 ,  0.38154587, -5.5925546 , ..., -1.7189457 ,
         0.45920756,  9.153731  ],
       [ 0.39624965,  0.57732254, -0.21604787, ..., -0.95016056,
         1.4669076 , 23.477928  ],
       [ 1.2902251 ,  0.3167493 ,  1.4795318 , ...,  0.03801664,
         1.4735177 , 22.606348  ]], dtype=float32), array([[ 0.11921651, -0.03942063, -0.00105418, ...,  0.23950188,
        -0.20207483, -0.5781365 ],
       [-0.0463034 ,  0.02474226,  0.0226669 , ..., -0.01949961,
         0.15953979, -0.16105935],
       [-0.0371285 , -0.02927014,  0.13235492, ...,  0.19134925,
        -0.41699892, -0.1391322 ],
       ...,
       [-0.11753359, -0.08730947, -0.11761244, ..., -0.13888046,
         0.40183726, -0.05547753],
       [ 0.02825471,  0.01793997,  0.00807831, ..., -0.0207968 ,
         0.22381411, -0.28842828],
       [ 0.08665635, -0.01375726, -0.02902321, ..., -0.01298655,
         0.34640768, -0.21034746]], dtype=float32), array([ 9.44879651e-02, -1.60234287e-01,  1.35192871e-01,  1.21913282e-02,
       -4.22236174e-01, -3.27854455e-01,  6.26229867e-02, -2.72230264e-02,
       -1.20594181e-01, -5.65418936e-02,  2.27458730e-01, -1.64210834e-02,
        8.44395876e-01, -7.32101649e-02,  8.63239914e-02, -1.28242627e-01,
        6.56388775e-02, -4.90503870e-02,  1.41556129e-01,  3.65077183e-02,
       -1.53034076e-01,  4.74812882e-03, -4.87684794e-02,  2.92971343e-01,
        1.63551986e-01, -1.16315491e-01, -6.39373660e-02,  7.09541142e-02,
       -3.09021354e-01, -1.09690540e-01,  3.36047746e-02,  1.59815028e-01,
       -1.59758076e-01,  1.40786260e-01, -3.32421988e-01, -6.77180216e-02,
        2.06010804e-01, -1.55102164e-01,  1.28635736e-02, -9.15018544e-02,
        2.40026399e-01,  3.31007913e-02,  6.41309842e-02, -2.33887389e-01,
       -8.00735429e-02, -5.13852715e-01,  7.66529068e-02, -3.21779102e-01,
       -7.54000664e-01,  2.64647275e-01, -2.93969482e-01, -6.91668317e-02,
       -2.26521552e-01,  1.58135202e-02, -2.60059506e-01, -2.07105771e-01,
        1.27886329e-02,  1.93095863e-01, -1.85564354e-01, -6.99592531e-01,
        7.80430853e-01, -1.28148749e-01,  1.44465387e-01, -4.25845057e-01,
        8.80195200e-02, -4.11410704e-02,  1.81870297e-01,  2.90094882e-01,
        7.56215900e-02, -1.40959746e-03, -1.78514332e-01,  3.23035032e-01,
       -4.73106444e-01,  2.95578837e-01, -1.81295022e-01, -2.32514217e-01,
       -9.16933641e-02,  4.56779748e-01, -5.35552144e-01,  1.16552889e-01,
        8.70986730e-02,  7.86987916e-02,  2.56915450e-01,  5.93748331e-01,
       -4.25153412e-02,  2.76322663e-01, -4.47468013e-01, -2.51821969e-02,
        2.88619936e-01,  8.20349306e-02,  5.96205413e-01, -1.57528073e-01,
        3.81765626e-02, -2.05756783e-01, -1.97754195e-03, -1.49536327e-01,
       -1.44699410e-01, -8.38902667e-02, -1.77154809e-01, -1.73076853e-01,
        9.29146588e-01,  1.04585981e+00,  1.42454338e+00,  1.03144872e+00,
       -7.77654722e-03,  3.44220459e-01,  1.39496732e+00,  1.42637515e+00,
        1.10386968e+00,  1.09799838e+00,  1.30105758e+00,  1.22698402e+00,
        2.09815431e+00,  8.15332472e-01,  8.06217611e-01,  1.04095507e+00,
        1.33479679e+00,  8.74450624e-01,  1.43336308e+00,  1.96856603e-01,
        1.24631441e+00,  1.21802199e+00,  8.40792000e-01,  5.40797949e-01,
        1.26123214e+00,  1.25169492e+00,  1.25496340e+00,  1.40671885e+00,
        9.91197765e-01,  1.10369599e+00,  1.38787401e+00,  1.33820581e+00,
        8.06457341e-01,  1.31320047e+00,  1.02415454e+00,  7.33106196e-01,
        1.33692122e+00,  9.86598551e-01,  9.03817534e-01,  1.10026634e+00,
        1.27922237e+00,  1.11439741e+00,  1.44709051e+00,  1.09884822e+00,
        1.19642913e+00,  1.29726601e+00,  1.23418272e+00,  8.89430523e-01,
        5.78506529e-01,  1.23249674e+00,  5.17895818e-01,  1.03125715e+00,
        8.68442774e-01,  8.95840704e-01,  1.38099885e+00,  1.29027712e+00,
        1.11607933e+00,  1.11583853e+00,  9.21519160e-01,  3.19524258e-01,
        1.48892760e+00,  1.22762406e+00,  1.19644511e+00,  1.21098375e+00,
        1.17966044e+00,  7.40599513e-01,  1.76076138e+00,  1.71830094e+00,
        1.30676758e+00,  1.48321962e+00,  9.51888382e-01,  1.33004415e+00,
        9.46133792e-01,  4.49457836e+00,  8.96494806e-01,  7.38074660e-01,
        1.07596946e+00,  1.34084463e+00,  1.68697131e+00,  1.01405847e+00,
        8.01036179e-01,  1.00209963e+00,  1.72629845e+00,  3.21091819e+00,
        1.37592745e+00,  1.30476916e+00,  7.87561476e-01,  1.11424756e+00,
        1.46066880e+00,  1.18128359e+00,  3.04190665e-01,  7.59698510e-01,
        1.20370483e+00,  9.75218415e-01,  1.07345819e+00,  1.08343613e+00,
        1.67726409e+00,  1.32216561e+00,  1.35883820e+00,  9.60816324e-01,
        1.46735340e-01, -1.87054086e+00,  1.41621852e+00, -6.48152232e-01,
       -1.59839451e+00,  1.44175696e+00, -1.21904634e-01, -1.64186046e-01,
        6.97705984e-01,  8.01675200e-01, -1.07743526e+00, -1.17438681e-01,
       -6.70237720e-01, -4.15292412e-01, -5.27713485e-02, -2.89442450e-01,
       -1.80734921e+00,  1.95460394e-01, -6.23965621e-01, -2.57547826e-01,
        6.70125306e-01, -1.28284514e+00, -6.01574063e-01, -9.58283097e-02,
       -2.81360567e-01, -1.68616354e+00,  1.83145136e-01, -1.99015647e-01,
       -2.61313796e-01, -9.35641825e-01,  1.14375341e+00, -7.96442866e-01,
        8.92406583e-01,  1.06257126e-01, -1.10984409e+00,  4.04606253e-01,
       -1.79700160e+00, -8.54690745e-02, -7.74455786e-01,  7.89852083e-01,
        8.21891069e-01,  2.47134149e-01, -1.84242296e+00,  6.37946665e-01,
       -5.82131684e-01,  2.41624761e+00, -6.08590007e-01,  6.54370189e-02,
       -6.95831954e-01, -4.63449597e-01,  6.38695478e-01,  1.59822300e-01,
        1.02152789e+00, -7.46791005e-01,  3.35797739e+00, -1.24834657e+00,
        7.51657635e-02,  1.34948432e+00, -1.09910214e+00,  8.64678994e-02,
        9.24528301e-01, -1.62882864e+00, -1.43889201e+00, -1.63797066e-01,
        4.82816100e-01,  9.10560548e-01, -6.37219250e-02, -1.74981797e+00,
       -9.62617874e-01, -1.61239934e+00,  8.15095752e-03, -2.39913011e+00,
        4.77341592e-01, -2.05539346e+00, -1.28564507e-01, -8.43884289e-01,
        1.30432606e+00, -3.42734408e+00, -9.62343454e-01,  1.06533337e+00,
       -9.82914269e-01,  6.96338117e-01, -4.66196239e-01, -2.15168190e+00,
        2.15309787e+00, -1.46479583e+00,  1.91465124e-01, -1.41373360e+00,
        1.79770064e+00, -1.07198644e+00,  2.57982612e-01, -4.20571864e-01,
       -1.71668994e+00, -3.83242667e-01,  2.69055694e-01,  1.53867796e-01,
       -3.55194360e-01, -1.45769387e-01, -5.16944341e-02,  2.25456408e-03,
       -1.48063198e-01,  1.47877619e-01,  2.74906427e-01, -1.29053041e-01,
       -8.07677507e-02, -4.42179948e-01,  3.43207419e-01, -4.00480300e-01,
       -2.00189754e-01,  4.83546704e-02,  2.94334084e-01, -2.00325146e-01,
       -4.32111830e-01, -4.63232607e-01,  2.88642913e-01, -5.46500206e-01,
        1.12808526e-01, -5.08457422e-01, -6.10518232e-02, -4.07520346e-02,
       -4.43121970e-01, -3.50684851e-01,  4.73700427e-02,  1.31215918e+00,
       -2.56921858e-01, -1.54827714e-01, -1.81144074e-01,  1.49420202e-01,
       -1.16609603e-01, -4.51359719e-01, -1.29046872e-01,  7.49118030e-02,
       -6.27735078e-01,  6.34471998e-02, -6.21084809e-01,  3.12679633e-02,
       -4.33565497e-01, -2.01738596e-01, -2.97897570e-02, -4.73462403e-01,
       -2.79249161e-01, -4.51431453e-01,  3.70166272e-01, -5.42298377e-01,
       -2.99320251e-01,  1.47484943e-01, -4.95386362e-01, -2.97943324e-01,
       -1.03789556e+00,  3.48235935e-01, -6.60737872e-01, -1.35940060e-01,
       -2.88809955e-01, -1.93698436e-01, -2.24222302e-01, -5.01954973e-01,
       -6.65044859e-02,  8.33850577e-02, -2.51701325e-01, -4.61511731e-01,
       -3.93170379e-02, -3.01537156e-01, -4.33831140e-02, -4.19564158e-01,
       -2.18702719e-01, -1.37745872e-01,  3.09355378e-01,  4.69579637e-01,
       -2.93746978e-01, -2.94397771e-01, -3.50021929e-01,  3.99619102e-01,
       -5.63928902e-01,  1.55441597e-01, -2.45073497e-01, -1.68308422e-01,
       -3.17095429e-01,  1.97352201e-01, -2.11595550e-01,  6.54904768e-02,
        1.86444744e-01,  4.78525199e-02,  3.65113802e-02,  5.96544087e-01,
       -6.07343800e-02, -5.93727343e-02, -5.33705533e-01, -2.73165226e-01,
        2.18255833e-01, -2.19311476e-01,  3.89044672e-01, -5.57304800e-01,
        4.56211232e-02, -6.63248181e-01, -1.04554668e-01, -7.00991377e-02,
       -2.82903522e-01,  6.14126818e-03, -9.33022022e-01,  3.55490386e-01],
      dtype=float32)], [array([[-9.57899570e+00,  8.76623535e+00],
       [-1.07419910e+01, -3.03387070e+00],
       [-3.82228923e+00, -3.80417228e+00],
       [ 3.23552442e+00,  7.76756048e-01],
       [-3.64976311e+00, -3.09904099e+00],
       [ 1.09915361e+01,  2.90650797e+00],
       [ 3.14777970e+00,  1.87719360e-01],
       [ 2.06409025e+00, -4.24546242e+00],
       [ 7.04268813e-01, -2.03459311e+00],
       [ 3.08472395e-01, -6.48774207e-01],
       [ 2.22675753e+00,  3.94729662e+00],
       [ 9.49573517e-01,  1.66986620e+00],
       [-1.39879954e+00, -2.25488853e+00],
       [ 6.24747562e+00, -5.02955198e-01],
       [-8.26569462e+00, -1.53772438e+00],
       [ 6.10988998e+00, -2.02932835e+01],
       [-1.74005792e-01, -1.91634715e-01],
       [-2.82016420e+00,  5.71618843e+00],
       [ 7.56023228e-01, -9.81598422e-02],
       [-1.34232020e+00, -3.57652187e-01],
       [ 1.20782909e+01,  2.96017770e-02],
       [ 5.66622925e+00, -1.27349102e+00],
       [-2.52505279e+00,  2.53745770e+00],
       [ 2.92440367e+00, -8.35968733e-01],
       [ 1.04918134e+00, -2.01391869e+01],
       [-1.47802567e+00, -1.01990342e+00],
       [ 7.72323895e+00,  4.97258663e+00],
       [-1.77234352e+00,  1.82537824e-01],
       [ 2.34994784e-01, -1.09474792e-03],
       [ 1.23689763e-01,  8.12312290e-02],
       [ 3.46215677e+00,  2.21613884e+00],
       [ 5.35028219e+00,  1.42082560e+00],
       [ 1.07752457e+01, -7.65430737e+00],
       [-3.51500034e+00,  5.98836541e-01],
       [ 2.89855957e+01, -8.91753483e+00],
       [-2.32734394e+00, -3.16558480e+00],
       [ 9.97121716e+00,  5.02645016e+00],
       [-4.22462225e+00, -4.01597834e+00],
       [-7.66652393e+00, -2.31088114e+00],
       [ 3.59234500e+00,  1.06103439e+01],
       [-1.22654448e+01,  2.63556995e+01],
       [-4.78833103e+00, -2.11770654e+00],
       [-4.47032881e+00,  1.25590682e+00],
       [ 3.84948516e+00,  1.05509281e+00],
       [-5.01924574e-01, -2.46882701e+00],
       [ 9.99449670e-01,  6.67971134e-01],
       [-2.38083029e+00, -7.44963026e+00],
       [-1.32018089e+00,  3.61767936e+00],
       [ 4.68672276e+00,  6.41017914e+00],
       [ 4.25197105e+01,  2.51081324e+00],
       [ 2.66982479e+01,  8.73962581e-01],
       [-4.44194347e-01, -3.35342705e-01],
       [ 1.82627404e+00, -8.87325346e-01],
       [-5.39817858e+00, -3.16326070e+00],
       [ 2.39022553e-01, -4.68820594e-02],
       [-1.30844116e+01,  3.19659591e-01],
       [-1.08788975e-01,  4.07739840e-02],
       [ 4.65922832e+00, -1.83559275e+00],
       [ 3.65642428e-01,  5.33029854e-01],
       [-4.80126202e-01,  7.56823635e+00],
       [ 6.70274830e+00,  5.71685791e+00],
       [-1.79958594e+00,  8.98943096e-03],
       [ 3.98449826e+00,  1.16291738e+00],
       [ 1.16928369e-02,  9.47380924e+00],
       [-4.66293156e-01, -1.52631915e+00],
       [ 2.34006453e+00, -1.75422475e-01],
       [-1.40815187e+00, -1.15645123e+00],
       [-9.20891166e-01,  2.67323017e+00],
       [ 3.49474263e+00, -1.63676262e+00],
       [ 3.40622282e+00, -3.17126703e+00],
       [-2.51807642e+00, -2.32166243e+00],
       [ 7.58570719e+00,  3.35365868e+00],
       [ 1.85556591e+00,  3.06959189e-02],
       [-1.94762528e+00,  4.50739831e-01],
       [-1.15090758e-01, -1.58257556e+00],
       [-2.70523000e+00, -6.42881680e+00],
       [-4.72699553e-01, -4.65715706e-01],
       [ 6.76019812e+00,  6.19686079e+00],
       [-3.26537037e+00, -4.36568356e+00],
       [-1.22957110e+00, -1.75618732e+00],
       [-1.52379808e+01, -7.96540689e+00],
       [ 7.26105356e+00, -1.33784795e+00],
       [ 5.22764921e+00, -3.65419579e+00],
       [ 8.10051155e+00, -6.38994277e-01],
       [-3.34670615e+00, -4.51849222e+00],
       [ 1.16836274e+00, -9.85587406e+00],
       [-3.12691994e+01, -5.91636038e+00],
       [ 6.84743881e+00,  3.53298616e+00],
       [-6.78701162e+00, -5.36640501e+00],
       [ 8.08514595e+00, -1.15367918e+01],
       [ 1.01283789e+01,  1.11922369e+01],
       [-3.19429708e+00,  7.87843823e-01],
       [ 2.35469437e+00,  7.10366535e+00],
       [ 2.43812621e-01, -1.53782063e+01],
       [ 5.89752972e-01, -2.47653842e-01],
       [ 1.99280784e-01,  3.37134972e-02],
       [-4.37746525e+00, -9.14580822e+00],
       [-4.48418665e+00,  5.11846058e-02],
       [-3.45075750e+00,  9.93339956e-01],
       [ 1.30782442e+01, -7.30098200e+00]], dtype=float32), array([ 0.02265653, -1.7948419 ], dtype=float32)]]