[[array([[ 0.3492609 ,  0.30444676, -2.1346948 , ..., -0.05222982,
         1.6327865 , -1.0412714 ],
       [ 0.4076371 , -0.10757464, -7.3051543 , ..., -0.07829541,
         0.2538458 , -1.155542  ],
       [ 0.95927   , -1.5633156 ,  1.7816771 , ..., -0.09002685,
         0.40821946, -0.45513466],
       [ 1.0284836 , -1.3403422 , -0.68512434, ..., -0.11155684,
         0.38151938, -0.10647411]], dtype=float32), array([[-0.03866545, -0.02593496, -0.10127585, ..., -0.03582603,
         0.08330925,  0.08876974],
       [-0.11511008,  0.16132998, -0.23320454, ..., -0.1596617 ,
        -0.06222598,  0.3465465 ],
       [-0.04534072,  0.10674047, -0.0121857 , ...,  0.09748483,
         0.14111136,  0.05562808],
       ...,
       [-0.00774265, -0.19765611,  0.15309033, ...,  0.50080866,
         0.03387327, -1.6042389 ],
       [ 0.03448408,  0.15231866, -0.26275823, ..., -0.4965139 ,
        -0.16250633,  1.7230166 ],
       [-0.02695055, -0.21870156,  0.10090798, ...,  0.28614354,
         0.06919859, -0.8300854 ]], dtype=float32), array([-9.31884050e-02,  1.19679086e-01, -2.08026335e-01, -5.82226589e-02,
        9.51609164e-02, -1.47540167e-01, -1.36055157e-01,  1.99676622e-02,
       -2.54159570e-01,  1.09573096e-01,  1.44389510e-01,  1.61290109e-01,
        8.30328107e-01,  2.05601066e-01,  3.44899520e-02, -6.52879536e-01,
        2.66217329e-02, -5.98648787e-01,  3.68853182e-01, -1.13417670e-01,
        2.45213509e-02,  1.57290950e-01,  5.67008667e-02,  2.43217260e-01,
       -3.03122103e-01,  1.86972663e-01, -1.45272717e-01,  7.21379966e-02,
        4.42935415e-02,  9.52615216e-02,  1.51132703e-01,  8.06115940e-03,
       -1.84378371e-01, -2.36348689e-01, -2.51618610e-03, -2.11832747e-01,
       -8.28802347e-01,  2.23566175e-01, -7.92836472e-02,  3.90292257e-02,
       -8.96220207e-02, -1.25014111e-01,  6.19866289e-02, -1.99446037e-01,
       -1.02954241e-03,  2.45552696e-02, -2.51207668e-02, -2.20652431e-01,
        1.03819430e-01,  4.31118906e-02, -2.48767342e-02, -2.67062545e-01,
        1.35556579e-01,  6.06560744e-02,  1.69511661e-02, -2.96949565e-01,
       -9.97298514e-04, -4.59324047e-02,  5.28139323e-02, -1.96051463e-01,
        1.19314797e-01,  3.40531200e-01,  3.98225814e-01,  1.34219602e-01,
        3.00564226e-02,  6.74698576e-02, -1.71971954e-02,  3.46564241e-02,
       -1.03113070e-01,  1.13680921e-01,  6.08678572e-02,  1.76774472e-01,
       -2.11482584e-01, -4.73635614e-01, -3.94009538e-02, -1.21448800e-01,
       -1.25328019e-01,  6.87698722e-02, -1.88514009e-01,  6.72700405e-02,
       -1.01349749e-01,  1.40093908e-01,  1.05147028e+00,  1.15286529e-01,
       -8.29442870e-03,  9.62202549e-02,  5.99263934e-03,  8.78616422e-02,
        7.02864602e-02,  8.00751030e-01, -1.68691710e-01,  1.19629130e-01,
       -1.57274112e-01,  2.21151680e-01,  2.09379911e-01,  6.58363923e-02,
        2.57592171e-01, -1.91851512e-01, -1.25937626e-01,  3.69683415e-01,
        6.71329260e-01,  1.60024583e+00,  5.71014345e-01,  9.37404633e-01,
        7.23158479e-01,  9.02924418e-01,  1.00160229e+00,  1.09227467e+00,
        6.88606381e-01,  1.24443614e+00,  9.56231654e-01,  1.08020508e+00,
        1.41404009e+00,  1.98756862e+00,  1.07081437e+00,  7.03835130e-01,
        1.14714754e+00, -3.53084058e-01,  2.46876860e+00,  9.04826999e-01,
        1.10816514e+00,  8.27538848e-01,  1.41978741e+00,  1.60255826e+00,
        1.17628443e+00,  1.14897907e+00,  8.48518610e-01,  1.06283808e+00,
        1.11003351e+00,  9.81798530e-01,  1.27908802e+00,  1.01214230e+00,
        7.38704383e-01,  7.38903999e-01,  1.23254693e+00,  9.82836485e-01,
       -7.18336627e-02,  1.43067479e+00,  1.04408503e+00,  5.34212232e-01,
        1.02014256e+00,  7.47600913e-01,  1.01874804e+00,  8.29146922e-01,
        9.20107603e-01,  9.69428957e-01,  7.85842657e-01,  6.34671926e-01,
        1.13722420e+00,  1.00632000e+00,  8.71531427e-01,  9.67975140e-01,
        1.15411794e+00,  1.02237725e+00,  1.29666090e+00,  1.18448699e+00,
        1.04082561e+00,  6.61671042e-01,  9.34624195e-01,  7.36633241e-01,
        1.36204493e+00,  3.49792528e+00,  9.75573123e-01,  1.11622810e+00,
        9.02717531e-01,  1.35593665e+00,  9.28368568e-01,  8.28581512e-01,
        8.10722768e-01,  1.34371281e+00,  9.75130975e-01,  5.54948986e-01,
        8.17965627e-01,  8.55494499e-01,  8.97184849e-01,  8.73290300e-01,
        1.06643772e+00,  1.02298284e+00,  3.77163917e-01,  1.24781907e+00,
        6.78573608e-01,  1.08375812e+00,  8.36322188e-01,  1.18989766e+00,
        7.25331426e-01,  1.01747262e+00,  7.21342504e-01,  1.04424834e+00,
       -2.28693679e-01,  1.30571163e+00,  1.27176189e+00,  1.26773655e+00,
        1.13807881e+00,  1.31818295e+00,  1.29356623e+00,  9.68434274e-01,
        9.40526485e-01,  7.50787020e-01,  6.97584629e-01,  1.63354349e+00,
        1.74737975e-01,  1.29390553e-01,  6.27790252e-03, -9.77670103e-02,
       -1.11866355e-01, -4.78292942e-01, -3.50774854e-01, -4.76683676e-01,
       -2.36955866e-01,  6.87397540e-01, -2.06901476e-01, -9.49788034e-01,
        5.30464351e-01, -4.51510340e-01,  1.71784326e-01, -7.96556890e-01,
       -6.98494762e-02,  1.33918798e+00, -4.46271718e-01, -6.79781958e-02,
        1.86143845e-01, -2.38271251e-01,  4.06128839e-02, -7.86441386e-01,
        1.20544024e-01,  3.12340818e-02,  1.76337302e-01,  4.59906697e-01,
        1.25783831e-01,  7.05735266e-01,  2.24607021e-01, -1.97725728e-01,
       -4.04111370e-02,  3.07375640e-01,  5.66247582e-01,  2.87410736e-01,
       -3.34576339e-01,  5.26514351e-01, -2.35660419e-01,  1.54433981e-01,
        2.58041710e-01, -6.44519091e-01,  2.58357823e-01,  5.02156578e-02,
       -3.06854069e-01,  2.17359558e-01, -1.13993488e-01, -2.20990270e-01,
        3.37365299e-01, -6.22110441e-02, -5.05188480e-03, -1.37854367e-01,
       -2.91190058e-01, -3.74958336e-01, -2.94809103e-01, -3.67793411e-01,
        3.40495616e-01, -3.39215785e-01,  1.25016242e-01,  4.14088935e-01,
       -2.78562546e-01, -7.25025982e-02,  7.15057969e-01,  1.00614421e-01,
       -4.91365075e-01,  5.85196435e-01,  2.70272136e-01,  5.07219076e-01,
        2.50491500e-01,  3.04810882e-01, -1.55877456e-01,  2.21357718e-01,
       -4.47604269e-01, -3.10370386e-01,  4.78052944e-01, -3.39236222e-02,
       -2.80131131e-01,  2.60631353e-01, -1.63179815e-01, -1.11636341e-01,
       -2.78624862e-01, -7.28400588e-01,  2.75944881e+01, -1.90022320e-01,
       -1.49054289e-01, -4.09269720e-01, -2.58744687e-01,  5.09615019e-02,
        1.02087700e+00,  6.91171229e-01, -6.58752561e-01,  2.03875154e-01,
       -4.25662287e-02,  6.28131032e-02,  1.99608505e-02, -2.50247754e-02,
        1.59504026e-01, -1.07451275e-01,  5.97713649e-01, -5.81376851e-01,
       -2.63723433e-01, -2.09757185e+00, -4.22825992e-01, -3.16106796e-01,
       -8.31907094e-01, -3.80755931e-01, -2.30146036e-01,  1.42088339e-01,
       -6.26102626e-01,  8.32875371e-02, -1.62022680e-01, -6.59799054e-02,
        5.17416537e-01,  3.98738503e-01, -3.86919379e-01, -6.23916924e-01,
       -5.77966034e-01, -3.37403923e-01, -9.27542150e-02, -7.10770637e-02,
        1.61327478e-02, -6.11825526e-01, -2.46476308e-01,  1.54028714e+00,
        2.24736929e-01,  1.17465280e-01, -7.42390811e-01,  7.46029139e-01,
       -7.17680037e-01, -3.74626070e-01,  2.64997989e-01,  9.76987779e-01,
       -1.09554183e+00, -4.72077467e-02,  4.15918976e-01, -1.98816568e-01,
       -1.01953268e-01,  1.38950682e+00, -1.79520532e-01, -1.53475866e-01,
        3.04091424e-01, -7.30574250e-01,  2.55489737e-01, -4.58885282e-01,
       -2.88576126e-01, -2.62838602e-01, -7.36550272e-01, -1.71820712e+00,
        5.66961527e-01, -2.52102673e-01, -3.87715638e-01, -1.86261132e-01,
        4.39064294e-01, -2.67086357e-01, -1.32475495e+00, -2.91171987e-02,
        3.90079737e-01, -1.13247328e-01, -8.26669753e-01, -3.62238556e-01,
       -5.35917342e-01, -3.63003224e-01,  1.79273129e-01, -3.19462538e-01,
       -3.85968804e-01, -3.99360538e-01,  1.38753414e-01, -8.68897140e-01,
       -5.64476550e-01, -5.02397478e-01, -4.68462408e-02, -7.60985494e-01,
       -5.47609031e-01, -9.85579491e-02, -2.64020562e-01, -4.54469919e-01,
        3.31055939e-01,  4.24747527e-01, -6.52414083e-01, -5.14480352e-01,
       -2.69810498e-01,  7.01011121e-01, -3.32037359e-01,  1.01130986e+00,
       -7.52612889e-01,  5.71298063e-01, -4.42663282e-02,  1.75720111e-01,
       -2.71589190e-01, -2.97413558e-01,  5.57413816e-01, -4.68876183e-01,
       -7.93988258e-02,  2.05611318e-01,  8.95285681e-02, -5.69232404e-01,
       -5.61218411e-02, -7.58649945e-01, -2.95059115e-01,  1.76277578e+00],
      dtype=float32)], [array([[ 5.67888403e+00,  3.60584044e+00],
       [-5.02219534e+00,  5.99545717e+00],
       [-5.79647970e+00,  3.73708773e+00],
       [ 1.81660569e+00,  2.32776284e+00],
       [-6.97353423e-01, -8.93996239e-01],
       [ 4.79989469e-01, -3.09932530e-01],
       [-1.05526054e+00,  1.14799431e-02],
       [-1.23360014e+00,  3.88181639e+00],
       [-2.57890534e+00,  5.89854956e-01],
       [-1.29411592e+01, -1.76174593e+00],
       [-2.14246321e+00,  1.31576431e+00],
       [-4.51889658e+00, -5.98133183e+00],
       [ 4.23936278e-01,  4.26256746e-01],
       [ 5.93471813e+00, -4.19065428e+00],
       [-1.21314993e+01,  6.42217493e+00],
       [-2.45938897e+00, -3.93263793e+00],
       [ 1.30054727e-01, -1.32471371e+01],
       [ 4.71036285e-02, -5.97832859e-01],
       [-4.55493987e-01,  1.54279613e+00],
       [-6.73642576e-01, -2.49827206e-01],
       [ 5.76481152e+00,  1.53349292e+00],
       [ 1.07565737e+00,  1.14218187e+00],
       [-2.20648319e-01,  3.18423557e+00],
       [-2.91972566e+00, -4.17599440e+00],
       [ 6.70178223e+00, -1.21965818e-01],
       [-1.56051517e-01,  6.05073273e-01],
       [-7.22641647e-01, -1.14968017e-01],
       [ 3.09743762e+00,  5.80199671e+00],
       [ 7.31178999e-01, -5.46244740e-01],
       [-1.66291697e-03, -7.09231973e-01],
       [ 9.89080429e+00,  3.87101412e+00],
       [-6.16906834e+00,  1.48410654e+00],
       [ 8.24077547e-01,  3.43614876e-01],
       [-4.09167099e+00, -1.50214977e+01],
       [-7.19290733e-01, -9.24438953e+00],
       [-6.56238937e+00,  1.53821440e+01],
       [-2.69843370e-01,  7.64056087e-01],
       [-6.62708223e-01, -4.08855051e-01],
       [ 9.73994255e-01,  5.76759100e-01],
       [-3.63690209e+00, -2.67896271e+00],
       [-3.79340053e+00, -2.51993036e+00],
       [-1.78522706e+00, -3.25736237e+00],
       [-1.01036239e+00, -7.15773225e-01],
       [ 2.86730337e+00,  1.48303199e+00],
       [ 2.61227870e+00,  4.62948179e+00],
       [ 3.89588618e+00,  1.30158317e+00],
       [-2.70898132e+01, -3.11615491e+00],
       [ 2.15081554e-02,  9.92710143e-02],
       [ 2.44782710e+00,  2.96108031e+00],
       [-3.48914599e+00, -1.60194564e+00],
       [-2.41728401e+00, -1.93686152e+00],
       [ 6.72575414e-01,  7.21819496e+00],
       [ 9.12869513e-01,  5.70402145e+00],
       [-1.96687675e+00, -2.15511727e+00],
       [-4.02596807e+00,  4.84888762e-01],
       [ 5.25503866e-02, -5.63298082e+00],
       [-2.27817011e+00, -1.25187457e+00],
       [ 3.28494310e+00,  3.53626060e+00],
       [ 6.39102697e+00,  1.06469946e+01],
       [ 3.96160817e+00,  5.25004983e-01],
       [-2.06602502e+00,  8.91664028e+00],
       [-2.19713879e+00, -2.14578032e+00],
       [ 9.23254967e+00,  1.19639206e+01],
       [-9.92264843e+00,  3.70710635e+00],
       [-1.08883114e+01, -1.25765252e+00],
       [-2.15182018e+01,  8.47478676e+00],
       [-4.49439240e+00, -5.07231903e+00],
       [ 6.85709834e-01, -5.00782549e-01],
       [-1.79273888e-01, -2.09230408e-01],
       [ 7.69877255e-01,  1.73402786e+01],
       [-4.08204079e-01, -5.63388586e-01],
       [ 1.19820385e+01,  1.84430580e+01],
       [ 1.95773351e+00, -3.10919106e-01],
       [ 3.27310443e+00,  1.55458536e+01],
       [-1.42663610e+00, -5.26379156e+00],
       [ 3.95638555e-01, -5.93792140e-01],
       [-4.45267487e+00, -9.41776156e-01],
       [-1.01834869e+00, -1.06019223e+00],
       [-3.68596077e+00, -1.78801191e+00],
       [ 2.05983829e+00, -1.61608734e+01],
       [ 2.92947888e+00,  1.15323043e+00],
       [-9.01061371e-02, -1.29758000e+00],
       [-3.12058115e+00, -4.18782091e+00],
       [ 5.93784189e+00,  4.84743881e+00],
       [ 2.51628189e+01,  3.28797603e+00],
       [ 7.21465302e+00, -1.25451982e+00],
       [ 5.21896458e+00,  4.98267174e+00],
       [ 4.30988646e+00, -2.07817245e+00],
       [-4.66012907e+00,  5.53602314e+00],
       [ 3.17374778e+00,  6.80737877e+00],
       [ 3.76360893e+00,  3.64586687e+00],
       [-1.23338957e+01, -1.51072779e+01],
       [-9.78679359e-01, -3.56299472e+00],
       [ 1.25811756e-01,  2.86112261e+00],
       [-2.83804965e+00, -7.25286007e-01],
       [-1.00060205e+01,  2.38326244e+01],
       [-1.76179051e+00,  3.08369279e+00],
       [-3.48643243e-01,  6.58217445e-02],
       [ 2.25220203e+00,  1.35977495e+00],
       [ 1.29344869e+00,  9.58422959e-01]], dtype=float32), array([1.8571044 , 0.26288876], dtype=float32)]]